-6.000000000000000000e+00
-5.878787878787878896e+00
-5.757575757575757791e+00
-5.636363636363636687e+00
-5.515151515151515582e+00
-5.393939393939393590e+00
-5.272727272727272485e+00
-5.151515151515151381e+00
-5.030303030303030276e+00
-4.909090909090909172e+00
-4.787878787878788067e+00
-4.666666666666666075e+00
-4.545454545454544970e+00
-4.424242424242423866e+00
-4.303030303030302761e+00
-4.181818181818181657e+00
-4.060606060606060552e+00
-3.939393939393939448e+00
-3.818181818181818343e+00
-3.696969696969696795e+00
-3.575757575757575690e+00
-3.454545454545454586e+00
-3.333333333333333037e+00
-3.212121212121211933e+00
-3.090909090909090828e+00
-2.969696969696969724e+00
-2.848484848484848619e+00
-2.727272727272727071e+00
-2.606060606060605966e+00
-2.484848484848484862e+00
-2.363636363636363313e+00
-2.242424242424242209e+00
-2.121212121212121104e+00
-2.000000000000000000e+00
-1.878787878787878896e+00
-1.757575757575757791e+00
-1.636363636363636687e+00
-1.515151515151514694e+00
-1.393939393939393590e+00
-1.272727272727272485e+00
-1.151515151515151381e+00
-1.030303030303030276e+00
-9.090909090909091717e-01
-7.878787878787880672e-01
-6.666666666666660745e-01
-5.454545454545449701e-01
-4.242424242424238656e-01
-3.030303030303027612e-01
-1.818181818181816567e-01
-6.060606060606055223e-02
6.060606060606055223e-02
1.818181818181816567e-01
3.030303030303027612e-01
4.242424242424247538e-01
5.454545454545458583e-01
6.666666666666669627e-01
7.878787878787880672e-01
9.090909090909091717e-01
1.030303030303030276e+00
1.151515151515151381e+00
1.272727272727273373e+00
1.393939393939394478e+00
1.515151515151515582e+00
1.636363636363636687e+00
1.757575757575757791e+00
1.878787878787878896e+00
2.000000000000000000e+00
2.121212121212121104e+00
2.242424242424242209e+00
2.363636363636363313e+00
2.484848484848484418e+00
2.606060606060605522e+00
2.727272727272726627e+00
2.848484848484849508e+00
2.969696969696970612e+00
3.090909090909091717e+00
3.212121212121212821e+00
3.333333333333333925e+00
3.454545454545455030e+00
3.575757575757576134e+00
3.696969696969697239e+00
3.818181818181818343e+00
3.939393939393939448e+00
4.060606060606060552e+00
4.181818181818181657e+00
4.303030303030302761e+00
4.424242424242423866e+00
4.545454545454544970e+00
4.666666666666667851e+00
4.787878787878788955e+00
4.909090909090910060e+00
5.030303030303031164e+00
5.151515151515152269e+00
5.272727272727273373e+00
5.393939393939394478e+00
5.515151515151515582e+00
5.636363636363636687e+00
5.757575757575757791e+00
5.878787878787878896e+00
6.000000000000000000e+00
-2.139021654858006993e+00
-2.149786079769002267e+00
-2.144609952184186152e+00
-2.147601336399014738e+00
2.135847470454971919e+00
2.148805153635072074e+00
2.150178086836072033e+00
2.151462720176626320e+00
-2.151221540135205501e+00
-2.142238216846017007e+00
-2.145578057818986473e+00
-2.147343295482470715e+00
2.145626311797336871e+00
2.145763547317219633e+00
2.138459691681207975e+00
2.145329619550183864e+00
-2.144298414082728144e+00
-2.146260016124498016e+00
-2.147316521377442555e+00
-2.141210402341387820e+00
2.136432829167396186e+00
2.135769199698769771e+00
2.143134168927407046e+00
2.133133416756561207e+00
-2.133348211845902398e+00
-2.150106052036973914e+00
-2.142392925849223584e+00
-2.134623843350980099e+00
2.132278126555229303e+00
2.135844323838872238e+00
2.142136836990090387e+00
2.149617335071697610e+00
-2.130438279448085837e+00
-2.131990704489875377e+00
-2.129394847707253735e+00
-2.131797559387898389e+00
2.138483359706266018e+00
2.129643170047156975e+00
2.144082609196361844e+00
2.129250128421231292e+00
-2.140405876771327875e+00
-2.137885975393558180e+00
-2.126720087133147086e+00
-2.129760041315978736e+00
2.139132130679586297e+00
2.131108702350728024e+00
2.130077394137852131e+00
2.135997913661316971e+00
-2.137642819628647661e+00
-2.132924069193188998e+00
-2.125631231368474872e+00
-2.135902329657520582e+00
2.130836005745757156e+00
2.143292576693675677e+00
2.132089786847268353e+00
2.131749440344105739e+00
-2.121234747887353222e+00
-2.126087723095117177e+00
-2.126249944669375669e+00
-2.127846722069427265e+00
2.131867216923324815e+00
2.135859067202188655e+00
2.135857440286252906e+00
2.130331662568138995e+00
-2.128572885220079147e+00
-2.132627767593246126e+00
-2.131516736060623085e+00
-2.131459838257581119e+00
2.123786293541780168e+00
2.135008511291098809e+00
2.121891405461204805e+00
2.135601860592230228e+00
-2.123803958845634554e+00
-2.122058276324608972e+00
-2.112600312386133883e+00
-2.121551985020204256e+00
2.118523367080218378e+00
2.121727622581230044e+00
2.115570660747463805e+00
2.127003442540712719e+00
-2.115425918347785483e+00
-2.118922340124709258e+00
-2.126088864772981868e+00
-2.124919310432006991e+00
2.123155698935576652e+00
2.114240359805439340e+00
2.118791459947680700e+00
2.115617409473019350e+00
-2.112796382284260588e+00
-2.108632314991432111e+00
-2.110906152023913851e+00
-2.118151583133101035e+00
2.114708360332085313e+00
2.121814406330326808e+00
2.122163322628532356e+00
2.114222741230741498e+00
-2.101600218128486297e+00
-2.104136931797168319e+00
-2.104139205508583021e+00
-2.101642434231570267e+00
2.113501804176140642e+00
2.115649803220214231e+00
2.101283153623904720e+00
2.106644813253830684e+00
-2.107666465854208138e+00
-2.101981446905537787e+00
-2.101192585639254151e+00
-2.103139718449242856e+00
2.094748705113392617e+00
2.110961336882546835e+00
2.110222531314853267e+00
2.105378996293445049e+00
-2.099369848334617039e+00
-2.085986129248240672e+00
-2.102559219513722155e+00
-2.101371602677264860e+00
2.090706364277344242e+00
2.090187547196466156e+00
2.101981987726090573e+00
2.100904644812530364e+00
-2.097358350143548655e+00
-2.086072558930590404e+00
-2.098509348081003978e+00
-2.093351894266091584e+00
2.082205503479483966e+00
2.097844972579697931e+00
2.086759164767601593e+00
2.082362541136814738e+00
-2.078681840090665478e+00
-2.092047931162657193e+00
-2.072579061555225977e+00
-2.073962966919014939e+00
2.083339136236316058e+00
2.084929027984484318e+00
2.080361066849259366e+00
2.080611513901048149e+00
-2.068380598209096810e+00
-2.084089594944247725e+00
-2.080202221488114844e+00
-2.075186982240047495e+00
2.066908994936466737e+00
2.077636031442517073e+00
2.075594195965234867e+00
2.082541826718772526e+00
2.063153484630603440e+00
2.059969953794540398e+00
2.073556112743061508e+00
2.070286837907064026e+00
-2.065407816213157943e+00
-2.069061466463800958e+00
-2.070934237789381793e+00
-2.075428964103694263e+00
2.051430332899504716e+00
2.057508385588872279e+00
2.064703490421714971e+00
2.060022093981745961e+00
-2.067920746990168812e+00
-2.056327331699520755e+00
-2.050129661477892551e+00
-2.051403290389971712e+00
-2.059669296670173289e+00
-2.041364213700809671e+00
-2.056077344507663440e+00
-2.044380075250483930e+00
2.050360740424026496e+00
2.051442391300993595e+00
2.049982132933295897e+00
2.052037645426755041e+00
-2.038467713574107165e+00
-2.032365834191494081e+00
-2.045356212437685173e+00
-2.046543032213973490e+00
2.046047786755265108e+00
2.046383254034411792e+00
2.045864053097008473e+00
2.050402726446375556e+00
-2.022227793041249555e+00
-2.035378889195309071e+00
-2.030905756585544175e+00
-2.029770985649726356e+00
2.025614750462141789e+00
2.040474910002492592e+00
2.037537136025726614e+00
2.035391483007192193e+00
-2.012746144675436888e+00
-2.031719707252627849e+00
-2.027653628618967918e+00
-2.031598274675044280e+00
2.026636709352375387e+00
2.030973901477377552e+00
2.025512811401098290e+00
2.014859844060968186e+00
-2.016458078731577341e+00
-2.020499325461718509e+00
-2.020718023793245166e+00
-2.017653263515077455e+00
2.009600728884564536e+00
2.013589718541667128e+00
2.016823893774342125e+00
2.014533780662254525e+00
-1.996850602266307728e+00
-2.003352308211412414e+00
-2.011650407000942664e+00
-2.000774305460008673e+00
2.012224602541548446e+00
1.995812053980310585e+00
2.008018707387736690e+00
1.999911637459149016e+00
-1.998886037763621948e+00
-1.988598159802306364e+00
-1.995050976208408544e+00
-1.993460135988511128e+00
1.996740410528673682e+00
1.988967358621937187e+00
1.992623305921132681e+00
1.999354853641006180e+00
-1.992281542629340763e+00
-1.979856008418587887e+00
-1.987973266664885719e+00
-1.991690329716128804e+00
1.989701245841312582e+00
1.978451043821876310e+00
1.991283727022364225e+00
1.978234456760352700e+00
-1.969561543180864627e+00
-1.971102063863469533e+00
-1.982741428571757059e+00
-1.975889797722130803e+00
1.984135902417268005e+00
1.986736749382781886e+00
1.969389943188792902e+00
1.971521546693386195e+00
-1.940045432011139770e+00
-1.937703637348377361e+00
-1.950013398258872765e+00
-1.947707792666000026e+00
1.948367418904546566e+00
1.947483537035155754e+00
1.937341702714830527e+00
1.939990777041919134e+00
-1.926174832245623136e+00
-1.937775750882133607e+00
-1.940878532734158224e+00
-1.928684462707904057e+00
1.939353429465193512e+00
1.940507436662330276e+00
1.942758275910144716e+00
1.938299086518841197e+00
-1.933398295779477527e+00
-1.921135587471590744e+00
-1.925147212314776812e+00
-1.923176919753356140e+00
1.928216745796134335e+00
1.920020528160161222e+00
1.931674984380933768e+00
1.916661945469161132e+00
-1.921045778407971527e+00
-1.919056796267804232e+00
-1.913081024877061331e+00
-1.916909516080932629e+00
1.922773479599996449e+00
1.907312637455933935e+00
1.906250343711946460e+00
1.904021114037549811e+00
-1.896861556902374346e+00
-1.896815295851671079e+00
-1.909875437602973403e+00
-1.911088967018589324e+00
1.895591173481675051e+00
1.896725817326689878e+00
1.892714481374378366e+00
1.895949856923458077e+00
-1.887977447034247858e+00
-1.890768145395668620e+00
-1.891528713334292622e+00
-1.890596200887129097e+00
1.885765347749845944e+00
1.880139619814268359e+00
1.882247196600650874e+00
1.889027982301837438e+00
-1.872323382161202643e+00
-1.875940425250178789e+00
-1.875971590183868942e+00
-1.885407591058189336e+00
1.882390223400577600e+00
1.870669902430074361e+00
1.874750417923011447e+00
1.882580371560921506e+00
-1.869289976902231976e+00
-1.868229725599503288e+00
-1.859101635309098111e+00
-1.861313174396287851e+00
1.852456644662876295e+00
1.859727911085224727e+00
1.857681059868058870e+00
1.865948492180145912e+00
-1.850541393621911945e+00
-1.846594823341199065e+00
-1.854979696842609105e+00
-1.849122778114137278e+00
1.854282220326862296e+00
1.848986981485900127e+00
1.857154966536867180e+00
1.850029582473786016e+00
-1.836417000436749047e+00
-1.842863582067947092e+00
-1.835189089887216074e+00
-1.829724839941702541e+00
1.827627983771640929e+00
1.842953744602584765e+00
1.830596620046601286e+00
1.826355621305502108e+00
-1.828767965864749989e+00
-1.814576991304069464e+00
-1.817530146181612016e+00
-1.828923482058897987e+00
1.827927221300576388e+00
1.825130969951757942e+00
1.824162101111680423e+00
1.820968078670024415e+00
-1.815718789148973666e+00
-1.803122930544508451e+00
-1.801386294382993691e+00
-1.808164767211425161e+00
1.805250303688629154e+00
1.811411633548250411e+00
1.808532815264867200e+00
1.808941174844495681e+00
-1.791394978533569660e+00
-1.802356919120201795e+00
-1.789683321525607829e+00
-1.797858713901713479e+00
1.791212613311114588e+00
1.800690890287501178e+00
1.794472590851885707e+00
1.786456342119009610e+00
-1.785965077211380647e+00
-1.774081902032667246e+00
-1.781362781694834529e+00
-1.773316526148003724e+00
1.788472475523078753e+00
1.776016792119601284e+00
1.787822298810367361e+00
1.776816706075394769e+00
-1.764899354979077462e+00
-1.775484466615699253e+00
-1.779226387019575029e+00
-1.775598082657258603e+00
1.775602119652195388e+00
1.767764259064298571e+00
1.777989838759705288e+00
1.770214666270022885e+00
-1.752291231714683040e+00
-1.760341742416863031e+00
-1.763578572826433932e+00
-1.767393630354351153e+00
1.764219080295213571e+00
1.754354943998059246e+00
1.763161840632954336e+00
1.752085521121004019e+00
-1.749717786424219046e+00
-1.749115633111893331e+00
-1.751808773530521446e+00
-1.750133876286280588e+00
1.754852353416145760e+00
1.749735944452307290e+00
1.748635823344559359e+00
1.744401769665384183e+00
-1.754600866295240591e+00
-1.738279605238991499e+00
-1.738816664595083994e+00
-1.743900926367732973e+00
1.747546054961692130e+00
1.743684997713471185e+00
1.745762689221436403e+00
1.736739217907336430e+00
-1.612018952985857512e+00
-1.615786080636075761e+00
-1.611030483820657722e+00
-1.627071308498444280e+00
1.619805167264712908e+00
1.617032580346418058e+00
1.613557507713607952e+00
1.621157113413217221e+00
-1.609523717176849722e+00
-1.607551757607603049e+00
-1.609162893555013074e+00
-1.619708090316063442e+00
1.610263322502194061e+00
1.611626676072206443e+00
1.620160565420635912e+00
1.613719872612490835e+00
-1.615620372749766442e+00
-1.605325800441239403e+00
-1.601976647193296577e+00
-1.598730968677038566e+00
1.601806703588884995e+00
1.598527098089536969e+00
1.601611941536481343e+00
1.602090541533145229e+00
-1.595849466175129239e+00
-1.593181004044199156e+00
-1.603074714225136033e+00
-1.588987336319440891e+00
1.592923105628909930e+00
1.603346936107836518e+00
1.598428103449662796e+00
1.598633519025686622e+00
-1.578308947257640593e+00
-1.590296714191601790e+00
-1.576727881562919098e+00
-1.592663237479207572e+00
1.585488580515406642e+00
1.586026698060207574e+00
1.582415992618045442e+00
1.589523928673621800e+00
-1.578526782364729764e+00
-1.563777336805776130e+00
-1.578857185465929458e+00
-1.576659561156049660e+00
1.568079694213873942e+00
1.569501360980588123e+00
1.571585390045333375e+00
1.562807434030900611e+00
-1.562123753434711659e+00
-1.546275072718258148e+00
-1.553726307998807510e+00
-1.553433291380106329e+00
1.550193402716160573e+00
1.551933918815662894e+00
1.546335165959048075e+00
1.548426869727643984e+00
-1.540303184737414011e+00
-1.531681162992907241e+00
-1.546175048072994773e+00
-1.533730631790055199e+00
1.538511965829450601e+00
1.530593062690673412e+00
1.541723040414027412e+00
1.542048655047794536e+00
-1.527669670417438175e+00
-1.532523872325676439e+00
-1.518899670230898336e+00
-1.517389456659043123e+00
1.532740475307597272e+00
1.514933990656864848e+00
1.523057910123788883e+00
1.518969341662156580e+00
-1.500762475189403977e+00
-1.511469343829682455e+00
-1.504646951040641278e+00
-1.509626649755607897e+00
1.507263977187076831e+00
1.516304081895257783e+00
1.518331431357459183e+00
1.499762380960186992e+00
-1.503349128639721144e+00
-1.486741119882359019e+00
-1.494210894685011670e+00
-1.491735996062282910e+00
1.502813883785733440e+00
1.495272718978373439e+00
1.486719075934399337e+00
1.502198837020225941e+00
-1.482090367560430444e+00
-1.484726679986431819e+00
-1.481833057553971544e+00
-1.481195169138183942e+00
1.476166374787094560e+00
1.474797276305745308e+00
1.470419562809524461e+00
1.480358035978329267e+00
-1.464309158820997325e+00
-1.462465239248763371e+00
-1.455804062014162348e+00
-1.459845906019490158e+00
1.470473288080689667e+00
1.466103504147708625e+00
1.453416444943166352e+00
1.458796837938028723e+00
-1.447535057083899623e+00
-1.451508153260878897e+00
-1.456217729222122115e+00
-1.449901381347825202e+00
1.451519354982894860e+00
1.454998986717507714e+00
1.438732693977537114e+00
1.445345353679492906e+00
-1.430700166852025834e+00
-1.438772127831226655e+00
-1.427421676269937656e+00
-1.436520167291385208e+00
1.433942292834815113e+00
1.424253313766494333e+00
1.425461915950946068e+00
1.436558564316753994e+00
-1.414458260526933575e+00
-1.410511609055296711e+00
-1.421713846939714143e+00
-1.412327035982873458e+00
1.414736645686086369e+00
1.416867765496750975e+00
1.411687542588571764e+00
1.425796915743642090e+00
-1.402654764854147640e+00
-1.397172354507238312e+00
-1.409441953956887650e+00
-1.413937397337381441e+00
1.404539905335614902e+00
1.404675765259727704e+00
1.394130130282300595e+00
1.400569010225086730e+00
-1.381582347891973761e+00
-1.386321407229841318e+00
-1.394131602025289185e+00
-1.399375311788312759e+00
1.387120387384892295e+00
1.396347283020934027e+00
1.391793101113086184e+00
1.378720648628925849e+00
-1.375615225069072967e+00
-1.385934333837927301e+00
-1.373577644608299897e+00
-1.369601779955342824e+00
1.383943965018028965e+00
1.369773356064024172e+00
1.365810438203615140e+00
1.379865294178324708e+00
-1.369774725130896265e+00
-1.357415894220203034e+00
-1.371888735079517474e+00
-1.366881282935733743e+00
1.365971654990747686e+00
1.371585272973373515e+00
1.354639567177828630e+00
1.372562232262948934e+00
-1.345762823448126477e+00
-1.362344999131928303e+00
-1.358132655239498554e+00
-1.357631699929237490e+00
1.352694309728070809e+00
1.350703386993080457e+00
1.350423207251543856e+00
1.355982268652738743e+00
-1.342648114022134687e+00
-1.345329527569479211e+00
-1.341498291990632641e+00
-1.346375107530445314e+00
1.344545128360557840e+00
1.349775204920269367e+00
1.349037323380830378e+00
1.341865228382610020e+00
-1.324785678682278478e+00
-1.341311773793625761e+00
-1.328608748797482697e+00
-1.332978477179886934e+00
1.339043697629053398e+00
1.335068274410631917e+00
1.324488592070027337e+00
1.333045148243120259e+00
-1.316153566500828598e+00
-1.324897230234537426e+00
-1.332124488906593740e+00
-1.327637918155878394e+00
1.321504838745306998e+00
1.321477117590319272e+00
1.322274305895715374e+00
1.325922114179209688e+00
-1.323987446268445556e+00
-1.311914205097339803e+00
-1.316803702258047215e+00
-1.320414997910523747e+00
1.320555898896689007e+00
1.316437372281610951e+00
1.309609305045096983e+00
1.323074616176237450e+00
-1.302188265169010650e+00
-1.313665505070754191e+00
-1.309005669105562486e+00
-1.308197107649625268e+00
1.305140060149911241e+00
1.311178173956186965e+00
1.317681858971901709e+00
1.315913045053589858e+00
-1.308312784638490767e+00
-1.306242549084671634e+00
-1.315125152024666066e+00
-1.297467311022616920e+00
1.294538869577876339e+00
1.308433512609396221e+00
1.306052616158535962e+00
1.306986142056829614e+00
-1.293195007326449764e+00
-1.301663149430793087e+00
-1.307300819117656276e+00
-1.302379600324624187e+00
1.291121672567829393e+00
1.297510565656997628e+00
1.296426637220298161e+00
1.296314152928465857e+00
-1.294410743840195499e+00
-1.304519533370451345e+00
-1.306676244199052039e+00
-1.297441251008935259e+00
1.296728201232650868e+00
1.295332215473646631e+00
1.300086738313148915e+00
1.299176215882278829e+00
-1.289361141272366007e+00
-1.307025957014002593e+00
-1.298295506885751571e+00
-1.289431129697839129e+00
6.283946938695416096e-01
6.397231373716250058e-01
6.302892500653173302e-01
6.325910590022997271e-01
3.364558352153736998e-01
3.442298303600775933e-01
3.443259574247378163e-01
3.286268574521826191e-01
-3.267021709229029347e-01
-3.380405074194179349e-01
-3.398988929982832974e-01
-3.400410998145206309e-01
3.290021025601558846e-01
3.363560525648073840e-01
3.417851894040888627e-01
3.313677264977751835e-01
-3.296606465838165523e-01
-3.271101938521502328e-01
-3.350113754724168280e-01
-3.268174719973384601e-01
3.268136852415879923e-01
3.303969916587131128e-01
3.329517957972779052e-01
3.362715391690538902e-01
-3.288157755846408126e-01
-3.219981620072963624e-01
-3.344924123644423264e-01
-3.244801605990653148e-01
3.223205639389066235e-01
3.297445538839338108e-01
3.262172955586849499e-01
3.228546816159004740e-01
-3.210123328940192589e-01
-3.231401257213537548e-01
-3.206679885419206899e-01
-3.291012950104257873e-01
3.269282692503155396e-01
3.276338748019239078e-01
3.102434255791156614e-01
3.174415461309122999e-01
-3.057032568084352975e-01
-3.212840858768002961e-01
-3.207815192374022795e-01
-3.172354676779187144e-01
3.123618633219787943e-01
3.056274113785760749e-01
3.025468749287991144e-01
3.042747669228832441e-01
-3.151879967338898636e-01
-2.966865331949472551e-01
-3.143638972764591921e-01
-3.159617942830937887e-01
2.999563687699957626e-01
3.028333559988602430e-01
2.966654438349864975e-01
3.083568241727989157e-01
-2.986034282437364795e-01
-2.891111021841558104e-01
-2.909551378546658129e-01
-2.967941699356428376e-01
2.964251526124830338e-01
2.974321438570072251e-01
2.975909749515069924e-01
2.817092952719426058e-01
-2.865644197771395896e-01
-2.900232139750053006e-01
-2.897494357447323865e-01
-2.806685628535088295e-01
2.749381164227424068e-01
2.819852354089494861e-01
2.750177580082532880e-01
2.861284320660844593e-01
-2.746972927379500717e-01
-2.727029391998033736e-01
-2.761646103601865798e-01
-2.787192122747796375e-01
2.676572879731379251e-01
2.595275419459507349e-01
2.541795503085522712e-01
2.556959647683848535e-01
-2.553799095009241515e-01
-2.651552107444656858e-01
-2.551798166870967721e-01
-2.500992883315768522e-01
2.417182284276641890e-01
2.569584027107186808e-01
2.471825137224941404e-01
2.507206671187381386e-01
-2.539836545214929631e-01
-2.368637993782552464e-01
-2.499242742166549736e-01
-2.413142025883232289e-01
2.399242451962912692e-01
2.286310378603153559e-01
2.379371725521329251e-01
2.253532253763022297e-01
-2.188846390503882966e-01
-2.283820438423820876e-01
-2.253345557310094116e-01
-2.245729672432011381e-01
2.089604125557308345e-01
2.163445292625153782e-01
2.258098652804809148e-01
2.112763016101592006e-01
-2.136087531288793639e-01
-2.061537742066026913e-01
-2.116699447660783384e-01
-2.177867244570876604e-01
2.104927844356760391e-01
2.069784298153070079e-01
1.995314907893447898e-01
1.924280778661171809e-01
-1.948080175330371699e-01
-1.864731719126856146e-01
-1.898420829402222010e-01
-2.027688467228211111e-01
1.794546652405603904e-01
1.794650245847526637e-01
1.897695956846676413e-01
1.749063859641874497e-01
-1.735136317252654325e-01
-1.837860683865454592e-01
-1.721712151199647212e-01
-1.757731388555185958e-01
1.629841360156302488e-01
1.559160112777374652e-01
1.592913835280116985e-01
1.656892352070580277e-01
-1.605744361164787581e-01
-1.505459559429144500e-01
-1.502597356346847546e-01
-1.600157750746792062e-01
1.457813795252676792e-01
1.560219591775137693e-01
1.395225626450526391e-01
1.403995183311785300e-01
-1.456576103204833272e-01
-1.428030118876877363e-01
-1.459372887762596938e-01
-1.513776672303306370e-01
1.314077388757612097e-01
1.360656007358128916e-01
1.334846441147511109e-01
1.220471174159891703e-01
-1.293896022078773744e-01
-1.291378575585777622e-01
-1.208680405413656844e-01
-1.269088934201404451e-01
1.125796503246064839e-01
1.059951983363857791e-01
9.960705388112567338e-02
1.136591449124112613e-01
-1.033742652741291845e-01
-9.157739626900819607e-02
-1.052340571209328113e-01
-1.052755548346281794e-01
8.202923675767653799e-02
9.304388801586190028e-02
8.464490100568262954e-02
8.773857629731154906e-02
-7.201147183045324141e-02
-7.388715721352291654e-02
-8.208245150887383268e-02
-7.886333506647939806e-02
5.906514455727902846e-02
7.272497532651366059e-02
7.013731642842276071e-02
6.518069721303505759e-02
-5.946995562305207317e-02
-5.905164048063508281e-02
-5.550924386903650226e-02
-5.437878674826603781e-02
3.483374844012279703e-02
3.475969269050219884e-02
4.973560731175368649e-02
3.544268828464292725e-02
-3.037062146867463772e-02
-4.300360749361056140e-02
-3.130472130734401198e-02
-4.369892544353995434e-02
3.093286723785516196e-02
2.000516299415948385e-02
2.428264723697810129e-02
3.357370299990500295e-02
-1.702730763754154580e-02
-2.482954566681520869e-02
-2.382498664997126370e-02
-2.595546849268609568e-02
1.106666398509005729e-02
1.238332886842904469e-02
4.581628215900895168e-03
-3.995215656217479538e-03
-2.143885923199746912e+00
2.143885365752625560e+00
-2.143232595765844017e+00
2.143230359608362612e+00
-2.142144115650097103e+00
2.142139059952845148e+00
-2.140621083802607849e+00
2.140612033019643423e+00
-2.138664342433090226e+00
2.138650075297173103e+00
-2.136274978410428460e+00
2.136254210863583580e+00
-2.133455242152659803e+00
2.133424740349762594e+00
-2.130204063247295387e+00
2.130165679754471242e+00
-2.126525579155522205e+00
2.126475906996264875e+00
-2.122419657157806672e+00
2.122356489948479030e+00
-2.117860290650082966e+00
2.117777827923124967e+00
-2.112977764451579699e+00
2.112879213349033503e+00
-2.107611427717546615e+00
2.107488927949457747e+00
-2.101843136390494138e+00
2.101689024340025469e+00
-2.095676315492434938e+00
2.095477182694279072e+00
-2.089127853383415001e+00
2.088854010207617407e+00
-2.082255902165155437e+00
2.081810977107503735e+00
-2.075630384323338351e+00
2.073522150998517333e+00
2.066807088313229457e+00
-2.066380614832835416e+00
2.058564259505904825e+00
-2.058462202172868238e+00
-2.050017506462356476e+00
2.050009164896528180e+00
-2.041188168632682931e+00
2.041114017361094657e+00
-2.032019533796886268e+00
2.031894519201238758e+00
-2.022553181251323995e+00
2.022382464783608391e+00
-2.012850103254328893e+00
2.012633833074590317e+00
-2.003021544759710615e+00
2.002755772741146245e+00
-1.993309032378209444e+00
1.992984357572498588e+00
-1.984344835104857818e+00
1.983942944126738661e+00
-1.978005165493547768e+00
1.977457545810101580e+00
-1.942418223612509376e+00
1.942313387619719833e+00
-1.935450563109892164e+00
1.935262540589562930e+00
-1.925236546714488739e+00
1.924971108239776907e+00
-1.913657647673784989e+00
1.913329933172373876e+00
-1.901356393027967995e+00
1.900974979266779386e+00
-1.888589185933869485e+00
1.888158821975950197e+00
-1.875487597311618071e+00
1.875012722103239993e+00
-1.862135132202069165e+00
1.861609992815262293e+00
-1.848611229941252931e+00
1.848045200906107688e+00
-1.834988676185256296e+00
1.834384063597696901e+00
-1.821357624083002502e+00
1.820721619107827483e+00
-1.807852760043341833e+00
1.807162760553358005e+00
-1.794595033700266962e+00
1.793913137061785346e+00
-1.781851533200386806e+00
1.781186670815171347e+00
-1.769955424179663783e+00
1.769348813069330006e+00
-1.759406802858281216e+00
1.758920146406044216e+00
-1.750900777695203914e+00
1.750601772627978781e+00
-1.745278843285200221e+00
1.745184001287123143e+00
-1.619403573473418900e+00
1.619386049226245516e+00
-1.615136902813154807e+00
1.614993182762623380e+00
-1.607271614916682356e+00
1.606930323850468412e+00
-1.596730985434477779e+00
1.596175415590344704e+00
-1.584334895164791090e+00
1.583575396121963852e+00
-1.570688284731444950e+00
1.569742101651654398e+00
-1.556209070805827599e+00
1.555091485129889373e+00
-1.541185826156316052e+00
1.539906633515452761e+00
-1.525821863837402148e+00
1.524386725233707551e+00
-1.510270904225705646e+00
1.508673699890220821e+00
-1.494653195262009460e+00
1.492837599389512437e+00
-1.480458188415736176e+00
1.478458020015365637e+00
-1.463604544741867075e+00
1.461805071356925056e+00
-1.448358399397355001e+00
1.446389564381472370e+00
-1.433397829995360251e+00
1.431298466752636056e+00
-1.418804093348715600e+00
1.416592105563729387e+00
-1.404657036380898338e+00
1.402350979544416454e+00
-1.391037369841652493e+00
1.388678956787637642e+00
-1.378364374205665488e+00
1.375273252503649957e+00
-1.365710675489465897e+00
1.363106710403672039e+00
-1.354170996025813922e+00
1.351561244310974796e+00
-1.343492436216500385e+00
1.340897545443334282e+00
-1.333756956376134895e+00
1.331213965099309338e+00
-1.325045458839215540e+00
1.322606406823445102e+00
-1.317428955003281832e+00
1.315154353120388420e+00
-1.310975346681698017e+00
1.308937877362736701e+00
-1.305741902031647639e+00
1.304025505971053711e+00
-1.301775507057095549e+00
1.300473880183726560e+00
-1.299111589366861441e+00
1.298325378582753098e+00
-1.297773752384932644e+00
6.331342585104053899e-01
3.348388028692012575e-01
-3.342259075797143208e-01
3.331383331857229457e-01
-3.317568690556853550e-01
3.297567331321396567e-01
-3.276704086577866826e-01
3.247317093714646719e-01
-3.220081157375884184e-01
3.181175163469818767e-01
-3.148257292463891299e-01
3.099824567308919199e-01
-3.061910296582004420e-01
3.004054649296487023e-01
-2.961766599817629020e-01
2.894787729291867784e-01
-2.848810520130767299e-01
2.772904382693046066e-01
-2.723811808108019261e-01
2.639417479244284270e-01
-2.587771196472420931e-01
2.495403269415970848e-01
-2.442104902717760762e-01
2.340887364779854207e-01
-2.285624979619802488e-01
2.178676344740639870e-01
-2.122174020405248884e-01
2.008499936312110046e-01
-1.951465358575272535e-01
1.831624855358990611e-01
-1.774864969272731685e-01
1.649321759951074828e-01
-1.594353400221546480e-01
1.463868732260596439e-01
-1.415061849212577716e-01
1.286864335335344001e-01
-1.265577395976899555e-01
1.036830123938879966e-01
-9.596874787865702916e-02
8.508843588384548684e-02
-7.762555767939520457e-02
6.511776065478515341e-02
-5.784482117253912647e-02
4.475010557645250908e-02
-3.757064869931424356e-02
2.419449946779592478e-02
-1.705882159052818370e-02
3.561516390725764057e-03
